gross_return,net_return_10bps
-0.014846757142857143,-0.015846757142857142
0.007797396428571429,0.007797396428571429
0.010647160714285708,0.010647160714285708
0.017796814285714297,0.017796814285714297
0.006023625000000001,0.006023625000000001
-0.003084710714285714,-0.003084710714285714
0.0031749714285714287,0.0031749714285714287
-0.0015907142857142856,-0.0015907142857142856
-0.002808296428571429,-0.002808296428571429
-0.005423332142857142,-0.005423332142857142
0.008571375000000003,0.008571375000000003
0.007636635714285713,0.007636635714285713
-0.0037600392857142827,-0.0037600392857142827
-0.003412632142857143,-0.003412632142857143
0.00021270357142857057,0.00021270357142857057
-0.008209214285714292,-0.008209214285714292
-0.028233710714285726,-0.028233710714285726
0.018490478571428565,0.018490478571428565
-0.015686421428571438,-0.015686421428571438
0.015288567857142858,0.015288567857142858
0.017551900000000002,0.017551900000000002
-0.0031682896551724136,-0.003304174992409096
0.013012586206896552,0.013012586206896552
0.007956948275862071,0.007956948275862071
0.0074578275862069,0.0074578275862069
0.0012058068965517233,0.0012058068965517233
0.0008695517241379315,0.0008695517241379315
0.004930134482758622,0.004930134482758622
0.006293499999999998,0.006293499999999998
-0.005003534482758621,-0.005003534482758621
-0.003005517241379311,-0.003005517241379311
-0.003158775862068966,-0.003158775862068966
0.003214982758620689,0.003214982758620689
-0.014873620689655167,-0.014873620689655167
0.00014908275862068884,0.00014908275862068884
0.009600486206896556,0.009600486206896556
-0.02616111379310346,-0.02616111379310346
-0.00035702413793103335,-0.00035702413793103335
0.02533795172413792,0.02533795172413792
-0.01120191379310345,-0.01120191379310345
-0.019647103448275863,-0.019647103448275863
-0.02101524137931033,-0.02101524137931033
0.017877741379310332,0.01766638053861673
-0.007735044827586204,-0.007735044827586204
0.018430748275862073,0.018430748275862073
0.005574627586206895,0.005574627586206895
0.014591817241379312,0.014591817241379312
0.0015850241379310335,0.0015850241379310335
0.009585672413793095,0.009585672413793095
-0.005474848275862071,-0.005474848275862071
0.0015521000000000007,0.0015521000000000007
-0.01658029655172413,-0.01658029655172413
0.0034794620689655165,0.0034794620689655165
0.00683616551724138,0.00683616551724138
-0.010069341379310343,-0.010069341379310343
-0.0087665448275862,-0.0087665448275862
0.005948489655172418,0.005948489655172418
0.01738986551724137,0.01738986551724137
-0.005523472413793102,-0.005523472413793102
-0.00122591724137931,-0.00122591724137931
0.006997541379310343,0.006997541379310343
0.012771575862068974,0.012771575862068974
0.009064299999999989,0.009064299999999989
0.0029876866666666674,0.0028318217492027684
-0.004070143333333334,-0.004070143333333334
0.007179163333333333,0.007179163333333333
0.004760733333333336,0.004760733333333336
0.0006055099999999999,0.0006055099999999999
0.005335950000000002,0.005335950000000002
-0.003156325162426668,-0.003156325162426668
0.012018603333333325,0.012018603333333325
0.0015447433333333337,0.0015447433333333337
-0.008166820000000003,-0.008166820000000003
-0.007006866666666671,-0.007006866666666671
0.01247419,0.01247419
-0.004943343333333336,-0.004943343333333336
0.012811546666666665,0.012811546666666665
0.004212263333333335,0.004212263333333335
-0.0012806466666666666,-0.0012806466666666666
-0.003336149999999999,-0.003336149999999999
0.0006655466666666664,0.0006655466666666664
-0.009273413333333331,-0.009273413333333331
-0.0012654166666666656,-0.0012654166666666656
-0.008562280000000005,-0.008562280000000005
-0.002231303333333335,-0.002361174600139572
-0.0004840000000000011,-0.0004840000000000011
0.009241296666666675,0.009241296666666675
-0.010995956666666666,-0.010995956666666666
-0.004319346666666668,-0.004319346666666668
-0.023582233333333334,-0.023582233333333334
0.009591036666666667,0.009591036666666667
0.018860493333333336,0.018860493333333336
-0.004422283333333334,-0.004422283333333334
-0.0037271299999999995,-0.0037271299999999995
-0.0008585266666666662,-0.0008585266666666662
0.015113466666666664,0.015113466666666664
0.0011852099999999988,0.0011852099999999988
0.009321466666666674,0.009321466666666674
-0.0034167366666666677,-0.0034167366666666677
0.0036908866666666676,0.0036908866666666676
0.003985443333333335,0.003985443333333335
0.002041766666666667,0.002041766666666667
-0.0019925733333333337,-0.0019925733333333337
0.0009947466666666662,0.0009947466666666662
-0.0046181,-0.0046181
0.009819825806451611,0.009696162672086053
0.0012908225806451616,0.0012908225806451616
0.0006409483870967749,0.0006409483870967749
-0.001558612903225806,-0.001558612903225806
0.006435732258064517,0.006435732258064517
0.003710351612903224,0.003710351612903224
0.0006106967741935487,0.0006106967741935487
-0.00325528064516129,-0.00325528064516129
-0.005451754838709679,-0.005451754838709679
0.0009149387096774196,0.0009149387096774196
-0.012757025806451616,-0.012757025806451616
0.01316860000000001,0.01316860000000001
0.005156767741935485,0.005156767741935485
-0.0008706645161290329,-0.0008706645161290329
0.007462990322580642,0.007462990322580642
0.0048944483870967705,0.0048944483870967705
0.0032817580645161295,0.0032817580645161295
0.00010034516129032211,0.00010034516129032211
-0.0009930548387096776,-0.0009930548387096776
0.003234054838709677,0.003234054838709677
0.004254009677419355,0.004254009677419355
-0.0018005266666666687,-0.0019435053508347969
0.0009990699999999997,0.0009990699999999997
-0.009443176666666664,-0.009443176666666664
0.01214572666666667,0.01214572666666667
0.00074947,0.00074947
-0.006953166666666673,-0.006953166666666673
-0.00420348,-0.00420348
-0.002679420000000001,-0.002679420000000001
-0.0034498133333333353,-0.0034498133333333353
-0.012968990000000005,-0.012968990000000005
0.017886957059073325,0.017886957059073325
0.00839227333333333,0.00839227333333333
0.0006636500000000007,0.0006636500000000007
0.010577983333333337,0.010577983333333337
-0.00047821,-0.00047821
-0.0031037599999999992,-0.0031037599999999992
0.0035738200000000006,0.0035738200000000006
0.004643916666666665,0.004643916666666665
-0.0035365533333333353,-0.0035365533333333353
-0.0004361600000000002,-0.0004361600000000002
0.005569103333333332,0.005569103333333332
-0.003027763333333335,-0.0031293542705614027
0.006860936666666669,0.006860936666666669
0.0010535233333333306,0.0010535233333333306
0.0005820133333333331,0.0005820133333333331
-0.0011309133333333335,-0.0011309133333333335
0.002523816666666667,0.002523816666666667
0.002267036666666667,0.002267036666666667
0.0006909666666666659,0.0006909666666666659
-0.001239946666666667,-0.001239946666666667
-0.0051814333333333315,-0.0051814333333333315
-0.009141109999999996,-0.009141109999999996
-0.0013293300000000003,-0.0013293300000000003
0.007312950000000001,0.007312950000000001
0.009136596666666665,0.009136596666666665
0.0057073066666666694,0.0057073066666666694
0.00447350853278333,0.00447350853278333
-0.0051317,-0.0051317
0.010512026666666669,0.010512026666666669
0.0006724299999999987,0.0006724299999999987
-0.0016245233333333341,-0.0016245233333333341
0.0010949233333333336,0.0010949233333333336
0.005813267741935487,0.005681882575764053
-0.0001464032258064524,-0.0001464032258064524
-0.007801983870967746,-0.007801983870967746
-0.0006306677419354841,-0.0006306677419354841
-0.0022110419354838726,-0.0022110419354838726
-0.0057517806451612905,-0.0057517806451612905
-0.001058264516129032,-0.001058264516129032
-0.004848193548387095,-0.004848193548387095
0.007623858064516131,0.007623858064516131
-3.379032258064549e-05,-3.379032258064549e-05
-0.00632168709677419,-0.00632168709677419
-0.017144212903225806,-0.017144212903225806
-0.0009105774193548386,-0.0009105774193548386
0.010410841935483873,0.010410841935483873
0.012700064516129032,0.012700064516129032
-0.0007627806451612901,-0.0007627806451612901
-0.0038386193548387085,-0.0038386193548387085
-0.02236388064516129,-0.02236388064516129
-0.0003540548387096782,-0.0003540548387096782
-0.006668983870967743,-0.006668983870967743
0.008661499999999994,0.008661499999999994
-0.014267224999999993,-0.014394458072663322
0.010223787499999996,0.010223787499999996
0.004970334375000002,0.004970334375000002
0.010804193749999998,0.010804193749999998
-0.004280284375,-0.004280284375
-0.006656800000000001,-0.006656800000000001
0.00245565625,0.00245565625
0.00728215,0.00728215
0.016407293750000006,0.016407293750000006
0.003957028125000001,0.003957028125000001
0.0017869812499999996,0.0017869812499999996
0.008763406250000006,0.008763406250000006
0.004504815625000004,0.004504815625000004
0.004027709375,0.004027709375
-0.0008665531250000004,-0.0008665531250000004
0.0027734531250000003,0.0027734531250000003
-0.0023250687499999996,-0.0023250687499999996
-0.013375603125000008,-0.013375603125000008
0.011730425000000003,0.011730425000000003
0.0007717343750000003,0.0007717343750000003
0.006371234374999995,0.006371234374999995
0.002692753125000001,0.0025455538808040576
0.0019109781250000002,0.0019109781250000002
0.0015948406249999992,0.0015948406249999992
0.0023790968750000007,0.0023790968750000007
0.005115812500000003,0.005115812500000003
0.0004967656250000005,0.0004967656250000005
-0.012086643749999999,-0.012086643749999999
0.002474115625,0.002474115625
0.0071426843750000005,0.0071426843750000005
-0.0005303093750000003,-0.0005303093750000003
0.0050321312499999995,0.0050321312499999995
-0.006637725000000003,-0.006637725000000003
-0.005065481250000001,-0.005065481250000001
-0.005545431250000001,-0.005545431250000001
-0.007822221875,-0.007822221875
-0.0006513500000000025,-0.0006513500000000025
0.0050522843750000004,0.0050522843750000004
-0.019232078124999996,-0.019232078124999996
0.010259521874999997,0.010259521874999997
-0.025623165625000006,-0.025623165625000006
-0.019524062500000005,-0.019524062500000005
0.018724750000000012,0.01854864454012473
-0.011927499999999999,-0.011927499999999999
0.008995709375000003,0.008995709375000003
0.02328728140624375,0.02328728140624375
0.008165481250000002,0.008165481250000002
-0.013736853125000009,-0.013736853125000009
0.0020223468750000004,0.0020223468750000004
-0.005878046875,-0.005878046875
-0.008892659374999999,-0.008892659374999999
0.01557144375,0.01557144375
-0.007685084375,-0.007685084375
-0.0014774874999999993,-0.0014774874999999993
-0.013548162500000013,-0.013548162500000013
0.02257248125000001,0.02257248125000001
0.006282421875000005,0.006282421875000005
0.007078996875,0.007078996875
0.010100015625000007,0.010100015625000007
-0.003226750000000001,-0.003226750000000001
0.0013544968750000004,0.0013544968750000004
0.0008503687500000009,0.0008503687500000009
-0.003185737499999999,-0.003185737499999999
-0.0019675741935483862,-0.0020777487317619084
-0.0033313032258064515,-0.0033313032258064515
-0.02254857741935485,-0.02254857741935485
0.001541287096774193,0.001541287096774193
-0.006275116129032264,-0.006275116129032264
-0.0002351516129032261,-0.0002351516129032261
0.012396670967741935,0.012396670967741935
-0.000688806451612903,-0.000688806451612903
-0.016005603225806443,-0.016005603225806443
-0.0007358032258064515,-0.0007358032258064515
-0.02054897096774195,-0.02054897096774195
-0.008820345161290318,-0.008820345161290318
-0.008583522580645164,-0.008583522580645164
-0.019826232258064496,-0.019826232258064496
0.006862067741935486,0.006862067741935486
-0.019040241935483874,-0.019040241935483874
-0.007305600000000003,-0.007305600000000003
-0.008760809677419351,-0.008760809677419351
0.02359799999999998,0.02359799999999998
0.027085829032258063,0.027085829032258063
0.008406622580645158,0.008406622580645158
0.0027486999999999998,0.002527294301726591
-0.021469234374999997,-0.021469234374999997
0.011070325000000004,0.011070325000000004
0.0007434593749999991,0.0007434593749999991
0.0088849125,0.0088849125
0.019468071875000006,0.019468071875000006
-0.016055703124999987,-0.016055703124999987
-0.017164604726234375,-0.017164604726234375
-0.007169615624999999,-0.007169615624999999
0.017653928125,0.017653928125
-0.0008382656249999998,-0.0008382656249999998
-0.02414239374999999,-0.02414239374999999
-0.009821778125000001,-0.009821778125000001
-0.007908625000000002,-0.007908625000000002
-0.01814275312499998,-0.01814275312499998
0.020129575000000018,0.020129575000000018
0.023786068750000007,0.023786068750000007
-0.0015958343750000006,-0.0015958343750000006
-0.016295174999999974,-0.016295174999999974
0.018876390625000013,0.018876390625000013
-0.010034681149871875,-0.010034681149871875
-0.010109587500000005,-0.010252732576162023
-0.03109373437499999,-0.03109373437499999
-0.0056801312500000005,-0.0056801312500000005
0.02756349062499999,0.02756349062499999
-0.006356431250000002,-0.006356431250000002
-0.016990378125000004,-0.016990378125000004
-0.008875725,-0.008875725
0.019331749999999995,0.019331749999999995
0.028668906250000004,0.028668906250000004
0.017105021874999998,0.017105021874999998
0.013495137500000007,0.013495137500000007
-0.0021750687499999992,-0.0021750687499999992
0.012225312499999997,0.012225312499999997
-0.01352920624999999,-0.01352920624999999
0.014390434374999995,0.014390434374999995
0.002624918749999995,0.002624918749999995
0.005432065625000003,0.005432065625000003
0.016371678124999987,0.016371678124999987
-0.008692328124999999,-0.008692328124999999
-0.013370956249999998,-0.013370956249999998
0.005195987499999996,0.005195987499999996
0.007418484374999999,0.007323146698061389
-0.014751653125,-0.014751653125
-0.010441518750000002,-0.010441518750000002
0.003042196875,0.003042196875
-0.002290790625000002,-0.002290790625000002
-0.011647381250000009,-0.011647381250000009
-0.004624559375000001,-0.004624559375000001
0.013626709375000007,0.013626709375000007
-0.012963265625000001,-0.012963265625000001
-0.00427425,-0.00427425
0.019856600000000016,0.019856600000000016
-0.0007842406250000037,-0.0007842406250000037
-0.023125278125000013,-0.023125278125000013
-0.02653374062500001,-0.02653374062500001
0.006427884375,0.006427884375
-0.027564725000000016,-0.027564725000000016
-0.0010278875000000007,-0.0010278875000000007
0.022210646874999997,0.022210646874999997
-0.032538549999999986,-0.032538549999999986
0.008646503125000001,0.008646503125000001
0.006067153125000004,0.006067153125000004
0.030219167741935504,0.03007145681917061
-0.03564572258064519,-0.03564572258064519
-0.01335406774193549,-0.01335406774193549
-0.040022361290322564,-0.040022361290322564
0.0011047999999999997,0.0011047999999999997
-0.01742071290322581,-0.01742071290322581
0.005943661290322584,0.005943661290322584
0.033929480645161304,0.033929480645161304
-0.009999283870967742,-0.009999283870967742
0.021985335483870973,0.021985335483870973
-0.03548189677419357,-0.03548189677419357
0.005617180645161292,0.005617180645161292
0.0015344741935483875,0.0015344741935483875
0.013801138709677427,0.013801138709677427
-0.013893367741935485,-0.013893367741935485
0.014109445161290327,0.014109445161290327
0.021495193548387092,0.021495193548387092
0.02749769354838709,0.02749769354838709
-0.011442693548387102,-0.011442693548387102
-0.009995677419354834,-0.009995677419354834
0.02588015806451614,0.02588015806451614
-0.014624773333333332,-0.01475177834427535
0.002715456666666667,0.002715456666666667
0.011512828519129993,0.011512828519129993
-0.011544853333333336,-0.011544853333333336
-0.025927773333333334,-0.025927773333333334
-0.029389986666666663,-0.029389986666666663
-0.04442348666666668,-0.04442348666666668
-0.005303616666666665,-0.005303616666666665
0.014692889999999997,0.014692889999999997
-0.038120263333333335,-0.038120263333333335
0.005906773333333334,0.005906773333333334
0.022609666666666667,0.022609666666666667
-0.0005835133333333318,-0.0005835133333333318
0.011600123333333328,0.011600123333333328
0.03256445999999999,0.03256445999999999
-0.0017493666666666666,-0.0017493666666666666
-0.01722532,-0.01722532
-0.004375466666666669,-0.004375466666666669
-0.00829177,-0.00829177
0.012932923333333329,0.012932923333333329
0.0005476566666666657,0.0005476566666666657
0.0008344806451612894,0.000680869652634582
0.016735464516129013,0.016735464516129013
-0.0023596741935483865,-0.0023596741935483865
-0.012313474193548389,-0.012313474193548389
-0.009837570967741936,-0.009837570967741936
-0.005236000000000001,-0.005236000000000001
-0.009335558064516126,-0.009335558064516126
0.02138636129032259,0.02138636129032259
-0.005768358064516134,-0.005768358064516134
0.02834443870967742,0.02834443870967742
0.009349141935483871,0.009349141935483871
0.009194896774193549,0.009194896774193549
-0.011356703225806453,-0.011356703225806453
0.003694587096774189,0.003694587096774189
-0.010059645161290326,-0.010059645161290326
0.023040032258064527,0.023040032258064527
0.014215429032258073,0.014215429032258073
0.010585609677419353,0.010585609677419353
-0.001149883870967741,-0.001149883870967741
-0.0017431903225806457,-0.0017431903225806457
0.015330000000000003,0.015330000000000003
-0.000500503124999998,-0.0006368175271173038
0.0029178937500000013,0.0029178937500000013
0.0009286343749999999,0.0009286343749999999
-0.007290787499999997,-0.007290787499999997
0.025644121875,0.025644121875
0.00028951562499999957,0.00028951562499999957
0.01754358124999999,0.01754358124999999
0.003456818749999999,0.003456818749999999
-6.89562499999998e-05,-6.89562499999998e-05
-0.010847253124999996,-0.010847253124999996
0.003499693749999999,0.003499693749999999
-0.014581196875000004,-0.014581196875000004
-0.020976821874999992,-0.020976821874999992
-0.0015965468750000003,-0.0015965468750000003
0.0059471968750000066,0.0059471968750000066
0.015850343750000002,0.015850343750000002
-0.032170809375000026,-0.032170809375000026
-0.006600846874999998,-0.006600846874999998
-0.009821974999999998,-0.009821974999999998
-0.007627915624999999,-0.007627915624999999
-0.0034019406250000005,-0.0034019406250000005
-0.008573237499999999,-0.008682575351956984
-0.00424254375,-0.00424254375
0.021827212500000002,0.021827212500000002
0.011384346875000001,0.011384346875000001
0.016456206249999994,0.016456206249999994
0.009281696874999995,0.009281696874999995
-0.038294875000000006,-0.038294875000000006
0.004449084374999999,0.004449084374999999
-0.010687849999999997,-0.010687849999999997
-0.011569321875000005,-0.011569321875000005
0.006281203124999999,0.006281203124999999
-0.015250384375000007,-0.015250384375000007
-0.014506496875000002,-0.014506496875000002
-0.016307953124999996,-0.016307953124999996
-0.016874818749999996,-0.016874818749999996
-0.014330496875000006,-0.014330496875000006
-0.0011978812499999984,-0.0011978812499999984
0.02351875625,0.02351875625
-0.019655446874999996,-0.019655446874999996
-0.011505381249999995,-0.011505381249999995
0.029234871875,0.029234871875
0.03630632499999998,0.03622313194832956
-0.003070284374999999,-0.003070284374999999
-0.010131846875000005,-0.010131846875000005
-0.027038690624999993,-0.027038690624999993
-0.009841890625000002,-0.009841890625000002
-0.009051640625,-0.009051640625
-0.005159318750000003,-0.005159318750000003
0.023144384374999997,0.023144384374999997
-0.026216356249999996,-0.026216356249999996
0.027332093750000012,0.027332093750000012
0.014034009374999998,0.014034009374999998
-0.009997431249999997,-0.009997431249999997
-0.009217078125000009,-0.009217078125000009
0.02100372812500001,0.02100372812500001
0.009198215625000013,0.009198215625000013
0.02174853437500001,0.02174853437500001
0.000697074999999998,0.000697074999999998
6.559400049999965e-05,6.559400049999965e-05
0.021018934374999992,0.021018934374999992
-0.0052432000000000025,-0.0052432000000000025
-0.00017067187499999987,-0.00017067187499999987
-0.026038043750000003,-0.026210227733967483
-0.00796285,-0.00796285
0.009286749999999988,0.009286749999999988
0.006683334374999996,0.006683334374999996
0.007923978125,0.007923978125
-0.020166028125,-0.020166028125
0.05657446249999998,0.05657446249999998
0.009886890625000005,0.009886890625000005
-0.011286918750000001,-0.011286918750000001
0.011485612499999997,0.011485612499999997
-0.010955681250000009,-0.010955681250000009
-0.0091458375,-0.0091458375
0.005937978125,0.005937978125
-0.0029048937499999996,-0.0029048937499999996
0.012748028124999988,0.012748028124999988
0.006587618750000001,0.006587618750000001
0.001699368750000001,0.001699368750000001
-0.01560094375,-0.01560094375
-0.0012401312500000007,-0.0012401312500000007
0.029233999999999993,0.029233999999999993
0.003290518750000001,0.003290518750000001
-0.0022218030303030327,-0.0023652168427563984
-0.02184196666666666,-0.02184196666666666
-0.013374890909090914,-0.013374890909090914
-0.0006433515151515154,-0.0006433515151515154
0.00838489090909091,0.00838489090909091
-0.007470439393939395,-0.007470439393939395
0.015071175757575763,0.015071175757575763
0.008425978787878787,0.008425978787878787
-0.006993930303030303,-0.006993930303030303
-0.02492808787878788,-0.02492808787878788
-0.010659566666666672,-0.010659566666666672
-0.008937772727272725,-0.008937772727272725
0.0024348545454545467,0.0024348545454545467
0.015790581818181822,0.015790581818181822
-0.013932484848484857,-0.013932484848484857
0.004720512121212122,0.004720512121212122
-0.002928760606060608,-0.002928760606060608
-0.011270948484848475,-0.011270948484848475
0.019123815151515143,0.019123815151515143
-0.0032394727272727266,-0.0032394727272727266
-0.004275181818181818,-0.004275181818181818
0.012355246875000005,0.01223472623763305
-0.013369359375000002,-0.013369359375000002
0.020559334374999995,0.020559334374999995
0.001263762500000001,0.001263762500000001
0.007016109375000004,0.007016109375000004
0.011568846875000005,0.011568846875000005
0.00263276875,0.00263276875
0.0035662312500000003,0.0035662312500000003
0.0002384156249999992,0.0002384156249999992
-0.016869534375,-0.016869534375
-0.010376059374999995,-0.010376059374999995
0.019045843749999996,0.019045843749999996
0.013682306249999996,0.013682306249999996
-0.0020100906249999996,-0.0020100906249999996
0.0014733343749999991,0.0014733343749999991
0.008480996875,0.008480996875
0.0018685874999999996,0.0018685874999999996
-0.011251103125000004,-0.011251103125000004
0.015140853125000003,0.015140853125000003
0.010597509375000003,0.010597509375000003
0.010018178125000003,0.010018178125000003
-0.013402443750000005,-0.01361080622317197
-0.0057670656250000014,-0.0057670656250000014
0.011369846874999999,0.011369846874999999
-0.009915806250000003,-0.009915806250000003
-0.010101571874999994,-0.010101571874999994
0.0019167531249999958,0.0019167531249999958
0.010645906249999993,0.010645906249999993
0.0021253562499999996,0.0021253562499999996
0.009854146874999992,0.009854146874999992
-0.012685181249999997,-0.012685181249999997
-0.0031253343750000015,-0.0031253343750000015
-0.02040712187500001,-0.02040712187500001
-9.05781250000001e-05,-9.05781250000001e-05
0.00403751875,0.00403751875
-0.010233709374999999,-0.010233709374999999
0.0028048843750000008,0.0028048843750000008
-0.0025134843749999997,-0.0025134843749999997
-0.003361181250000002,-0.003361181250000002
0.00888701562499999,0.00888701562499999
0.015342271874999999,0.015342271874999999
-0.00282718125,-0.00282718125
-0.014804675000000002,-0.014880539133076597
0.000813275000000001,0.000813275000000001
-0.019741531250000003,-0.019741531250000003
-0.02076813125,-0.02076813125
-0.0021753218750000013,-0.0021753218750000013
0.01621526875,0.01621526875
-0.012727409375000005,-0.012727409375000005
0.016069753125000006,0.016069753125000006
-0.016165299999999987,-0.016165299999999987
0.011907856250000008,0.011907856250000008
0.014691037499999999,0.014691037499999999
-0.020606793749999994,-0.020606793749999994
-0.00025887187499999925,-0.00025887187499999925
0.005689137499999994,0.005689137499999994
0.005912353125,0.005912353125
-0.0003760812500000004,-0.0003760812500000004
0.015950590625000004,0.015950590625000004
0.005615896875000001,0.005615896875000001
0.015171531249999997,0.015171531249999997
0.0001426062500000014,0.0001426062500000014
-0.008490234374999997,-0.008490234374999997
-0.0033885967741935463,-0.003495132567794393
0.001322322580645162,0.001322322580645162
0.00530082903225806,0.00530082903225806
0.0037782096774193544,0.0037782096774193544
-0.0030439451612903224,-0.0030439451612903224
0.009991000000000002,0.009991000000000002
-0.0038613709677419402,-0.0038613709677419402
0.004697048387096777,0.004697048387096777
8.767741935483908e-06,8.767741935483908e-06
-0.0019694612903225816,-0.0019694612903225816
-0.006450564516129027,-0.006450564516129027
-0.0005756451612903222,-0.0005756451612903222
0.0010513677419354839,0.0010513677419354839
-0.017377245161290324,-0.017377245161290324
-0.009063696774193547,-0.009063696774193547
0.013179583870967751,0.013179583870967751
0.006744848387096786,0.006744848387096786
-0.00019029032258064524,-0.00019029032258064524
-0.015377096774193551,-0.015377096774193551
-0.0052434419354838715,-0.0052434419354838715
-0.0047785161290322615,-0.0047785161290322615
0.015929759374999984,0.0158084567617218
0.00027364062500000066,0.00027364062500000066
-0.004136381250000006,-0.004136381250000006
0.0033234593749999998,0.0033234593749999998
-0.004443912499999996,-0.004443912499999996
-0.0007184125000000003,-0.0007184125000000003
0.007460362500000003,0.007460362500000003
-0.013295915624999991,-0.013295915624999991
0.01250935625,0.01250935625
0.009567153124999997,0.009567153124999997
-0.0018582531249999997,-0.0018582531249999997
0.0036511937499999984,0.0036511937499999984
-0.010461075000000007,-0.010461075000000007
-0.009827565624999996,-0.009827565624999996
-0.0003159843750000011,-0.0003159843750000011
0.011716784375000004,0.011716784375000004
-0.001042121875000001,-0.001042121875000001
-0.004787831250000001,-0.004787831250000001
0.009171562499999997,0.009171562499999997
0.018658131250000005,0.018658131250000005
-0.0018158468749999985,-0.0018158468749999985
0.003954724999999998,0.003787735308776728
0.000307206250000001,0.000307206250000001
0.003725240624999998,0.003725240624999998
-0.0007032812500000003,-0.0007032812500000003
0.007573500000000001,0.007573500000000001
0.009550140625000002,0.009550140625000002
-0.0017024156250000008,-0.0017024156250000008
0.012715118750000007,0.012715118750000007
-0.0023026781249999998,-0.0023026781249999998
-0.008824487500000006,-0.008824487500000006
-0.004798900000000001,-0.004798900000000001
-0.0013878874999999997,-0.0013878874999999997
-0.009218375000000001,-0.009218375000000001
0.0015910593749999989,0.0015910593749999989
0.012109868750000002,0.012109868750000002
-0.0005398062500000021,-0.0005398062500000021
0.005477034375000001,0.005477034375000001
0.010438896874999997,0.010438896874999997
0.003442021875000002,0.003442021875000002
-0.0031611343750000006,-0.0031611343750000006
-0.009927075000000004,-0.009927075000000004
0.0009740062499999998,0.0008650681529888943
0.00941030625,0.00941030625
0.011068850000000007,0.011068850000000007
0.004812540624999993,0.004812540624999993
0.008888546875,0.008888546875
-0.005153446874999998,-0.005153446874999998
0.005047178124999999,0.005047178124999999
0.0062071625000000045,0.0062071625000000045
0.003663812500000002,0.003663812500000002
-0.002174268749999999,-0.002174268749999999
0.002631931249999999,0.002631931249999999
-0.0003089781250000004,-0.0003089781250000004
0.00224764375,0.00224764375
-0.0002514093750000013,-0.0002514093750000013
-0.008676512500000006,-0.008676512500000006
0.006996812499999994,0.006996812499999994
0.003390743750000001,0.003390743750000001
-0.0034252156250000002,-0.0034252156250000002
-0.014007734374999999,-0.014007734374999999
-0.004182265625000002,-0.004182265625000002
-0.005600131250000002,-0.005600131250000002
0.007583199999999997,0.007416989644582015
-0.007416873333333335,-0.007416873333333335
-0.006613970000000003,-0.006613970000000003
-0.00048570999999999917,-0.00048570999999999917
-0.0008066266666666663,-0.0008066266666666663
0.002078223333333335,0.002078223333333335
-0.013648906666666672,-0.013648906666666672
-0.00682219666666667,-0.00682219666666667
-0.00831493,-0.00831493
0.0009470066666666669,0.0009470066666666669
0.0037979399999999996,0.0037979399999999996
-0.003106633333333335,-0.003106633333333335
0.009608659999999995,0.009608659999999995
-0.011449400000000004,-0.011449400000000004
0.007687710000000005,0.007687710000000005
0.006366473333333327,0.006366473333333327
0.01325150333333333,0.01325150333333333
0.003335750000000001,0.003335750000000001
-0.001671240000000001,-0.001671240000000001
0.003280173333333334,0.003280173333333334
-0.006960250000000001,-0.006960250000000001
-0.0028784124999999988,-0.0030548946317423015
-0.0023123187500000033,-0.0023123187500000033
-0.00012151562500000062,-0.00012151562500000062
0.00431835,0.00431835
-0.0030265875,-0.0030265875
-0.0013748218749999996,-0.0013748218749999996
0.00906393125,0.00906393125
-0.009579099999999998,-0.009579099999999998
-0.0012007437499999998,-0.0012007437499999998
-0.0027492156250000003,-0.0027492156250000003
-0.005364065625000001,-0.005364065625000001
-0.017027665625000004,-0.017027665625000004
-0.002002093749999999,-0.002002093749999999
0.002251121875000001,0.002251121875000001
-0.013335762499999999,-0.013335762499999999
0.002270993750000001,0.002270993750000001
0.006265715624999999,0.006265715624999999
-0.002236146874999999,-0.002236146874999999
-0.009582381250000011,-0.009582381250000011
-0.012408421875000004,-0.012408421875000004
0.006957815625000003,0.006957815625000003
-0.004086993750000001,-0.004164339018336417
0.01312240625,0.01312240625
0.007786471875,0.007786471875
0.007933875000000002,0.007933875000000002
0.0019274249999999998,0.0019274249999999998
-0.012709063280146876,-0.012709063280146876
-0.002676487499999999,-0.002676487499999999
0.012320406250000011,0.012320406250000011
0.0036414624999999996,0.0036414624999999996
-0.015671409374999997,-0.015671409374999997
-0.011173468749999997,-0.011173468749999997
-0.013137571874999998,-0.013137571874999998
-0.00483259375,-0.00483259375
0.007629853125000001,0.007629853125000001
-0.01405661875,-0.01405661875
-0.005370724999999998,-0.005370724999999998
-0.010882596874999997,-0.010882596874999997
0.005932540625000003,0.005932540625000003
0.011039934375000005,0.011039934375000005
0.0033421843749999974,0.0033421843749999974
0.02227973749999999,0.02227973749999999
0.01570916451612903,0.015570656650398517
-0.004246474193548387,-0.004246474193548387
0.002191177419354838,0.002191177419354838
-0.001418777419354838,-0.001418777419354838
-0.008393506451612897,-0.008393506451612897
0.012137187096774197,0.012137187096774197
-0.00017786451612903195,-0.00017786451612903195
0.025326912903225814,0.025326912903225814
0.0025788870967741917,0.0025788870967741917
-0.0016934129032258067,-0.0016934129032258067
0.004451700000000001,0.004451700000000001
0.00550991935483871,0.00550991935483871
-0.0003361915719645157,-0.0003361915719645157
0.004479474193548391,0.004479474193548391
0.0038268483870967747,0.0038268483870967747
-0.002650383870967743,-0.002650383870967743
-0.00012976774193548392,-0.00012976774193548392
0.00428141290322581,0.00428141290322581
0.007366877419354845,0.007366877419354845
0.011875951612903234,0.011875951612903234
-0.0019155838709677413,-0.0019155838709677413
-0.0073991375000000015,-0.007529374620636954
-0.0018144374999999986,-0.0018144374999999986
0.005334546875,0.005334546875
0.0035177031250000004,0.0035177031250000004
0.010515106249999998,0.010515106249999998
0.0036715843750000005,0.0036715843750000005
0.018753085016365623,0.018753085016365623
0.008709953125000001,0.008709953125000001
-0.0049781625,-0.0049781625
0.0020214218750000006,0.0020214218750000006
0.008320018750000002,0.008320018750000002
-0.0172762625,-0.0172762625
0.012038496874999992,0.012038496874999992
0.004024025,0.004024025
0.0065326093750000015,0.0065326093750000015
0.0014575781250000005,0.0014575781250000005
0.001517475,0.001517475
-0.0037400499999999987,-0.0037400499999999987
-0.004460118750000001,-0.004460118750000001
-0.011645971875000006,-0.011645971875000006
-0.00110848125,-0.00110848125
0.001758690322580645,0.0016480153784895794
0.012885090322580648,0.012885090322580648
-0.004009229032258065,-0.004009229032258065
0.002024945161290322,0.002024945161290322
-0.0029371387096774177,-0.0029371387096774177
-0.0005432645161290322,-0.0005432645161290322
-0.005857025806451617,-0.005857025806451617
-0.007191441935483876,-0.007191441935483876
0.005408000000000001,0.005408000000000001
0.00991510967741935,0.00991510967741935
0.005145554838709679,0.005145554838709679
0.00224168064516129,0.00224168064516129
-0.005717883870967746,-0.005717883870967746
0.006514458064516132,0.006514458064516132
0.0005348741935483869,0.0005348741935483869
0.009268229032258065,0.009268229032258065
0.0003468096774193551,0.0003468096774193551
-0.01357763548387097,-0.01357763548387097
0.010312232258064519,0.010312232258064519
0.0020782322580645165,0.0020782322580645165
-0.007865312903225806,-0.007865312903225806
0.005582558064516129,0.005475698868831996
0.003601741935483872,0.003601741935483872
0.0027212903225806444,0.0027212903225806444
0.0032118225806451613,0.0032118225806451613
0.003286367741935481,0.003286367741935481
-0.015129119354838716,-0.015129119354838716
0.011165835483870967,0.011165835483870967
0.010163725806451614,0.010163725806451614
-0.004755641935483873,-0.004755641935483873
-0.00502021935483871,-0.00502021935483871
4.905806451612775e-05,4.905806451612775e-05
0.013879987096774188,0.013879987096774188
0.0007425387096774193,0.0007425387096774193
-0.0030233999999999973,-0.0030233999999999973
0.003370254838709678,0.003370254838709678
-0.00017257419354838713,-0.00017257419354838713
0.0040633258064516125,0.0040633258064516125
0.00676551935483871,0.00676551935483871
0.00249964193548387,0.00249964193548387
-0.00951798387096774,-0.00951798387096774
0.008602970967741937,0.008602970967741937
0.009424656666666668,0.009262116421035726
-0.0036423399999999996,-0.0036423399999999996
0.0009330866666666674,0.0009330866666666674
0.00469689,0.00469689
0.00024843666666666647,0.00024843666666666647
-0.007872259999999999,-0.007872259999999999
-0.004303528041986668,-0.004303528041986668
0.0038999333333333336,0.0038999333333333336
0.004688016666666658,0.004688016666666658
0.008607156666666673,0.008607156666666673
0.007224123333333332,0.007224123333333332
-0.004444096666666666,-0.004444096666666666
-0.0004780533333333326,-0.0004780533333333326
-0.0011006766666666664,-0.0011006766666666664
0.01186858666666668,0.01186858666666668
0.002514983333333335,0.002514983333333335
-0.004061139999999998,-0.004061139999999998
-0.008458586666666663,-0.008458586666666663
0.0018316300000000003,0.0018316300000000003
-0.01011236333333334,-0.01011236333333334
0.008517066666666668,0.008517066666666668
0.0021382900000000006,0.0020303349935457972
0.002541700000000001,0.002541700000000001
-0.01223469333333333,-0.01223469333333333
0.002083196666666667,0.002083196666666667
-0.01655857,-0.01655857
-0.011839713333333333,-0.011839713333333333
-0.0030176599999999993,-0.0030176599999999993
-0.004163620000000001,-0.004163620000000001
-0.0011879200000000003,-0.0011879200000000003
-0.0019397933333333338,-0.0019397933333333338
0.009483163333333326,0.009483163333333326
0.012089540000000005,0.012089540000000005
0.000869826666666666,0.000869826666666666
-0.001113836666666666,-0.001113836666666666
0.004387136666666666,0.004387136666666666
0.006112853333333335,0.006112853333333335
-0.01572608,-0.01572608
-0.0017286433333333327,-0.0017286433333333327
0.008752293764613334,0.008752293764613334
0.007627793333333338,0.007627793333333338
0.009905676666666658,0.009905676666666658
0.002329710000000002,0.002251987319152572
-0.0005809933333333338,-0.0005809933333333338
0.005355663333333332,0.005355663333333332
0.0013037100000000002,0.0013037100000000002
-0.0009387666666666658,-0.0009387666666666658
0.005422956666666671,0.005422956666666671
0.012559363333333334,0.012559363333333334
-0.0013115833333333339,-0.0013115833333333339
0.0013534766666666658,0.0013534766666666658
0.0022117499999999993,0.0022117499999999993
-0.000727173333333333,-0.000727173333333333
-0.0013885566666666678,-0.0013885566666666678
-0.013883463333333337,-0.013883463333333337
0.005826793333333334,0.005826793333333334
-0.007633873333333336,-0.007633873333333336
-0.01054634666666667,-0.01054634666666667
-0.002293466666666667,-0.002293466666666667
0.007479730000000001,0.007479730000000001
-0.004366693333333334,-0.004366693333333334
-0.0011627033333333327,-0.0011627033333333327
0.009357626666666676,0.009357626666666676
-0.002228348275862072,-0.002357488261754793
-0.0026025999999999988,-0.0026025999999999988
0.0033853206896551726,0.0033853206896551726
-0.002444775862068965,-0.002444775862068965
0.005379351724137932,0.005379351724137932
-0.004314862068965517,-0.004314862068965517
-0.004267710344827584,-0.004267710344827584
0.005937296551724139,0.005937296551724139
0.0032011827586206896,0.0032011827586206896
0.0010206586206896557,0.0010206586206896557
0.00035939310344827626,0.00035939310344827626
0.0035617896551724073,0.0035617896551724073
-0.0017494793103448284,-0.0017494793103448284
-0.003939431034482756,-0.003939431034482756
0.0034021551724137955,0.0034021551724137955
-0.0005616862068965509,-0.0005616862068965509
-0.0037016620689655205,-0.0037016620689655205
0.005409555172413792,0.005409555172413792
0.0020596758620689665,0.0020596758620689665
0.0013775137931034487,0.0013775137931034487
0.001478472413793101,0.001478472413793101
-0.0018973137931034478,-0.002015932946479835
0.0073084655172413766,0.0073084655172413766
0.0060368413793103455,0.0060368413793103455
0.007480555172413794,0.007480555172413794
0.001986699999999999,0.001986699999999999
0.012028320689655172,0.012028320689655172
-0.009572951724137925,-0.009572951724137925
-0.00877616896551724,-0.00877616896551724
-0.005920182758620688,-0.005920182758620688
0.009733558620689656,0.009733558620689656
-0.002670451724137931,-0.002670451724137931
-0.015506096551724144,-0.015506096551724144
-0.001270089655172413,-0.001270089655172413
0.011748286206896557,0.011748286206896557
0.0007289172413793108,0.0007289172413793108
-0.0010699448275862055,-0.0010699448275862055
0.009158231034482761,0.009158231034482761
-0.01424097931034483,-0.01424097931034483
-0.02262792413793104,-0.02262792413793104
-0.02453517931034483,-0.02453517931034483
0.011801306896551726,0.011801306896551726
-0.006882340000000004,-0.007074033723102151
0.02344384000000001,0.02344384000000001
0.002622043333333334,0.002622043333333334
-0.003767163333333333,-0.003767163333333333
0.014195109999999993,0.014195109999999993
0.004115030000000002,0.004115030000000002
0.015190839999999992,0.015190839999999992
0.0023565233333333337,0.0023565233333333337
0.008957929999999996,0.008957929999999996
-0.0043888,-0.0043888
0.006914760000000001,0.006914760000000001
-0.006004203333333334,-0.006004203333333334
0.012082553333333336,0.012082553333333336
-0.0014486533333333334,-0.0014486533333333334
0.0009859833333333331,0.0009859833333333331
-0.005284899999999999,-0.005284899999999999
0.0060296833333333315,0.0060296833333333315
0.009058483333333334,0.009058483333333334
-0.018638509999999994,-0.018638509999999994
-0.0014199333333333336,-0.0014199333333333336
-0.00578407,-0.00578407
-0.015090658620689652,-0.015217648708465852
0.011767806896551722,0.011767806896551722
0.0014098827586206892,0.0014098827586206892
0.00541523448275862,0.00541523448275862
0.004545206896551725,0.004545206896551725
0.008387527586206894,0.008387527586206894
0.006660358620689659,0.006660358620689659
0.0018143310344827595,0.0018143310344827595
-0.0029438206896551743,-0.0029438206896551743
0.014406058620689657,0.014406058620689657
-0.0009049413793103446,-0.0009049413793103446
0.0041836275862069,0.0041836275862069
0.0005026137931034478,0.0005026137931034478
-0.00593127931034483,-0.00593127931034483
0.006138593103448271,0.006138593103448271
0.003160275862068967,0.003160275862068967
0.0013467172413793107,0.0013467172413793107
-0.00717693793103448,-0.00717693793103448
0.0011730620689655163,0.0011730620689655163
-0.0031846310344827585,-0.0031846310344827585
0.010531358620689654,0.010531358620689654
-0.00840143103448276,-0.008511850630512316
0.005471765517241378,0.005471765517241378
0.008072393103448277,0.008072393103448277
-0.001422931034482759,-0.001422931034482759
0.011100748275862072,0.011100748275862072
0.006824424137931033,0.006824424137931033
-0.007652103448275864,-0.007652103448275864
0.004462634482758617,0.004462634482758617
-0.0010492379310344836,-0.0010492379310344836
0.00257654827586207,0.00257654827586207
-0.00570363793103448,-0.00570363793103448
-0.0041146586206896535,-0.0041146586206896535
-0.005259562068965518,-0.005259562068965518
0.001207341379310344,0.001207341379310344
-0.003849262068965521,-0.003849262068965521
0.003903075862068966,0.003903075862068966
-0.0006623655172413775,-0.0006623655172413775
-0.0016234931034482738,-0.0016234931034482738
-0.011684589655172406,-0.011684589655172406
0.002623086206896552,0.002623086206896552
-0.0005183758620689656,-0.0005183758620689656
0.012379406896551733,0.01229420744040217
0.028575472413793112,0.028575472413793112
0.004918541379310345,0.004918541379310345
0.005278327586206899,0.005278327586206899
0.009002848275862068,0.009002848275862068
-0.005597993103448282,-0.005597993103448282
-0.001023803448275863,-0.001023803448275863
-0.00905121379310345,-0.00905121379310345
-0.010484917241379312,-0.010484917241379312
0.0067102999999999954,0.0067102999999999954
0.0011088241379310342,0.0011088241379310342
0.004285634482758622,0.004285634482758622
0.013891669279662079,0.013891669279662079
0.008445544827586209,0.008445544827586209
0.005499851724137931,0.005499851724137931
-0.0002606896551724134,-0.0002606896551724134
-0.002569665517241379,-0.002569665517241379
0.002890410344827585,0.002890410344827585
-0.0015369206896551706,-0.0015369206896551706
-0.00273979655172414,-0.00273979655172414
0.005472606896551725,0.005472606896551725
